<?xml version="1.0"?>
<opencv_storage>
<cascade>
  <stageType>BOOST</stageType>
  <featureType>HAAR</featureType>
  <height>20</height>
  <width>20</width>
  <stageParams>
    <boostType>GAB</boostType>
    <minHitRate>9.9900001287460327e-01</minHitRate>
    <maxFalseAlarm>5.0000000000000000e-01</maxFalseAlarm>
    <weightTrimRate>9.4999999999999996e-01</weightTrimRate>
    <maxDepth>1</maxDepth>
    <maxWeakCount>100</maxWeakCount></stageParams>
  <featureParams>
    <maxCatCount>0</maxCatCount>
    <featSize>1</featSize>
    <mode>ALL</mode></featureParams>
  <stageNum>11</stageNum>
  <stages>
    <!-- stage 0 -->
    <_>
      <maxWeakCount>1</maxWeakCount>
      <stageThreshold>1.</stageThreshold>
      <weakClassifiers>
        <_>
          <internalNodes>
            0 -1 5 -4.3736588209867477e-02</internalNodes>
          <leafValues>
            1. -1.</leafValues></_></weakClassifiers></_>
    <!-- stage 1 -->
    <_>
      <maxWeakCount>1</maxWeakCount>
      <stageThreshold>1.</stageThreshold>
      <weakClassifiers>
        <_>
          <internalNodes>
            0 -1 10 -2.0423997193574905e-02</internalNodes>
          <leafValues>
            1. -1.</leafValues></_></weakClassifiers></_>
    <!-- stage 2 -->
    <_>
      <maxWeakCount>2</maxWeakCount>
      <stageThreshold>-8.4141857922077179e-02</stageThreshold>
      <weakClassifiers>
        <_>
          <internalNodes>
            0 -1 2 -8.0444440245628357e-02</internalNodes>
          <leafValues>
            8.8571429252624512e-01 -9.7894734144210815e-01</leafValues></_>
        <_>
          <internalNodes>
            0 -1 23 4.8056751489639282e-02</internalNodes>
          <leafValues>
            -8.8565999269485474e-01 8.9480549097061157e-01</leafValues></_></weakClassifiers></_>
    <!-- stage 3 -->
    <_>
      <maxWeakCount>2</maxWeakCount>
      <stageThreshold>1.0032763704657555e-02</stageThreshold>
      <weakClassifiers>
        <_>
          <internalNodes>
            0 -1 14 1.3109149038791656e-01</internalNodes>
          <leafValues>
            -7.8378379344940186e-01 9.7752809524536133e-01</leafValues></_>
        <_>
          <internalNodes>
            0 -1 22 2.0228190347552299e-02</internalNodes>
          <leafValues>
            -8.3366060256958008e-01 7.9381656646728516e-01</leafValues></_></weakClassifiers></_>
    <!-- stage 4 -->
    <_>
      <maxWeakCount>2</maxWeakCount>
      <stageThreshold>-2.1896184980869293e-01</stageThreshold>
      <weakClassifiers>
        <_>
          <internalNodes>
            0 -1 13 3.9937332272529602e-02</internalNodes>
          <leafValues>
            -9.3258428573608398e-01 7.4774771928787231e-01</leafValues></_>
        <_>
          <internalNodes>
            0 -1 11 -1.6079219058156013e-02</internalNodes>
          <leafValues>
            7.5107777118682861e-01 -9.6670961380004883e-01</leafValues></_></weakClassifiers></_>
    <!-- stage 5 -->
    <_>
      <maxWeakCount>3</maxWeakCount>
      <stageThreshold>-5.1522147655487061e-01</stageThreshold>
      <weakClassifiers>
        <_>
          <internalNodes>
            0 -1 19 4.8939567059278488e-02</internalNodes>
          <leafValues>
            -5.9349590539932251e-01 9.4805192947387695e-01</leafValues></_>
        <_>
          <internalNodes>
            0 -1 25 -2.4352520704269409e-03</internalNodes>
          <leafValues>
            7.0990115404129028e-01 -7.7832019329071045e-01</leafValues></_>
        <_>
          <internalNodes>
            0 -1 8 -6.4718812704086304e-02</internalNodes>
          <leafValues>
            8.9012384414672852e-01 -6.3162672519683838e-01</leafValues></_></weakClassifiers></_>
    <!-- stage 6 -->
    <_>
      <maxWeakCount>4</maxWeakCount>
      <stageThreshold>-5.3665751218795776e-01</stageThreshold>
      <weakClassifiers>
        <_>
          <internalNodes>
            0 -1 5 -8.4995947778224945e-02</internalNodes>
          <leafValues>
            7.7083331346511841e-01 -7.1153843402862549e-01</leafValues></_>
        <_>
          <internalNodes>
            0 -1 7 2.9928712174296379e-02</internalNodes>
          <leafValues>
            -8.7054926156997681e-01 7.0781576633453369e-01</leafValues></_>
        <_>
          <internalNodes>
            0 -1 3 -1.3343888521194458e-01</internalNodes>
          <leafValues>
            5.7213765382766724e-01 -8.6450177431106567e-01</leafValues></_>
        <_>
          <internalNodes>
            0 -1 1 -1.7785388627089560e-04</internalNodes>
          <leafValues>
            -9.3404322862625122e-01 4.7329252958297729e-01</leafValues></_></weakClassifiers></_>
    <!-- stage 7 -->
    <_>
      <maxWeakCount>3</maxWeakCount>
      <stageThreshold>-1.0950046777725220e+00</stageThreshold>
      <weakClassifiers>
        <_>
          <internalNodes>
            0 -1 12 1.7755236476659775e-02</internalNodes>
          <leafValues>
            -7.8021979331970215e-01 6.5137612819671631e-01</leafValues></_>
        <_>
          <internalNodes>
            0 -1 15 1.1162890121340752e-02</internalNodes>
          <leafValues>
            -9.4476479291915894e-01 5.6809669733047485e-01</leafValues></_>
        <_>
          <internalNodes>
            0 -1 6 -6.7345462739467621e-03</internalNodes>
          <leafValues>
            5.8073180913925171e-01 -8.8288158178329468e-01</leafValues></_></weakClassifiers></_>
    <!-- stage 8 -->
    <_>
      <maxWeakCount>4</maxWeakCount>
      <stageThreshold>-1.4349052906036377e+00</stageThreshold>
      <weakClassifiers>
        <_>
          <internalNodes>
            0 -1 17 -8.2249213010072708e-03</internalNodes>
          <leafValues>
            5.9322035312652588e-01 -8.5365855693817139e-01</leafValues></_>
        <_>
          <internalNodes>
            0 -1 24 -6.1897970736026764e-03</internalNodes>
          <leafValues>
            7.2438281774520874e-01 -5.9254902601242065e-01</leafValues></_>
        <_>
          <internalNodes>
            0 -1 18 1.1799289844930172e-02</internalNodes>
          <leafValues>
            -5.6031036376953125e-01 7.8216862678527832e-01</leafValues></_>
        <_>
          <internalNodes>
            0 -1 4 3.8883045315742493e-02</internalNodes>
          <leafValues>
            -7.7086627483367920e-01 5.5656540393829346e-01</leafValues></_></weakClassifiers></_>
    <!-- stage 9 -->
    <_>
      <maxWeakCount>2</maxWeakCount>
      <stageThreshold>-8.3989389240741730e-02</stageThreshold>
      <weakClassifiers>
        <_>
          <internalNodes>
            0 -1 9 3.9180781692266464e-02</internalNodes>
          <leafValues>
            -6.1403506994247437e-01 8.1395345926284790e-01</leafValues></_>
        <_>
          <internalNodes>
            0 -1 20 2.4464826565235853e-03</internalNodes>
          <leafValues>
            -8.9794290065765381e-01 5.9541958570480347e-01</leafValues></_></weakClassifiers></_>
    <!-- stage 10 -->
    <_>
      <maxWeakCount>4</maxWeakCount>
      <stageThreshold>-3.0138716101646423e-01</stageThreshold>
      <weakClassifiers>
        <_>
          <internalNodes>
            0 -1 21 1.4073748141527176e-02</internalNodes>
          <leafValues>
            -6.0714286565780640e-01 7.7272725105285645e-01</leafValues></_>
        <_>
          <internalNodes>
            0 -1 26 -5.5816788226366043e-03</internalNodes>
          <leafValues>
            8.2859939336776733e-01 -6.7740768194198608e-01</leafValues></_>
        <_>
          <internalNodes>
            0 -1 16 -2.2547043045051396e-04</internalNodes>
          <leafValues>
            6.6733920574188232e-01 -8.7142777442932129e-01</leafValues></_>
        <_>
          <internalNodes>
            0 -1 0 -6.7515118280425668e-04</internalNodes>
          <leafValues>
            -1. 4.7472101449966431e-01</leafValues></_></weakClassifiers></_></stages>
  <features>
    <_>
      <rects>
        <_>
          0 0 6 1 -1.</_>
        <_>
          2 0 2 1 3.</_></rects>
      <tilted>0</tilted></_>
    <_>
      <rects>
        <_>
          0 1 2 1 -1.</_>
        <_>
          1 1 1 1 2.</_></rects>
      <tilted>0</tilted></_>
    <_>
      <rects>
        <_>
          0 1 20 2 -1.</_>
        <_>
          5 1 10 2 2.</_></rects>
      <tilted>0</tilted></_>
    <_>
      <rects>
        <_>
          0 1 20 3 -1.</_>
        <_>
          5 1 10 3 2.</_></rects>
      <tilted>0</tilted></_>
    <_>
      <rects>
        <_>
          0 1 10 6 -1.</_>
        <_>
          0 1 5 3 2.</_>
        <_>
          5 4 5 3 2.</_></rects>
      <tilted>0</tilted></_>
    <_>
      <rects>
        <_>
          0 4 4 9 -1.</_>
        <_>
          2 4 2 9 2.</_></rects>
      <tilted>0</tilted></_>
    <_>
      <rects>
        <_>
          0 16 19 4 -1.</_>
        <_>
          0 18 19 2 2.</_></rects>
      <tilted>0</tilted></_>
    <_>
      <rects>
        <_>
          1 8 13 12 -1.</_>
        <_>
          1 11 13 6 2.</_></rects>
      <tilted>0</tilted></_>
    <_>
      <rects>
        <_>
          2 5 8 14 -1.</_>
        <_>
          2 5 4 7 2.</_>
        <_>
          6 12 4 7 2.</_></rects>
      <tilted>0</tilted></_>
    <_>
      <rects>
        <_>
          2 8 15 9 -1.</_>
        <_>
          2 11 15 3 3.</_></rects>
      <tilted>0</tilted></_>
    <_>
      <rects>
        <_>
          3 0 12 2 -1.</_>
        <_>
          3 1 12 1 2.</_></rects>
      <tilted>0</tilted></_>
    <_>
      <rects>
        <_>
          3 1 6 1 -1.</_>
        <_>
          5 3 2 1 3.</_></rects>
      <tilted>1</tilted></_>
    <_>
      <rects>
        <_>
          3 1 6 4 -1.</_>
        <_>
          3 1 3 2 2.</_>
        <_>
          6 3 3 2 2.</_></rects>
      <tilted>0</tilted></_>
    <_>
      <rects>
        <_>
          4 3 8 10 -1.</_>
        <_>
          8 3 4 10 2.</_></rects>
      <tilted>0</tilted></_>
    <_>
      <rects>
        <_>
          4 11 16 6 -1.</_>
        <_>
          12 11 8 6 2.</_></rects>
      <tilted>0</tilted></_>
    <_>
      <rects>
        <_>
          5 6 6 4 -1.</_>
        <_>
          8 6 3 4 2.</_></rects>
      <tilted>0</tilted></_>
    <_>
      <rects>
        <_>
          6 0 2 3 -1.</_>
        <_>
          7 0 1 3 2.</_></rects>
      <tilted>0</tilted></_>
    <_>
      <rects>
        <_>
          7 0 3 2 -1.</_>
        <_>
          8 1 1 2 3.</_></rects>
      <tilted>1</tilted></_>
    <_>
      <rects>
        <_>
          7 10 10 4 -1.</_>
        <_>
          7 11 10 2 2.</_></rects>
      <tilted>0</tilted></_>
    <_>
      <rects>
        <_>
          8 2 5 9 -1.</_>
        <_>
          8 5 5 3 3.</_></rects>
      <tilted>0</tilted></_>
    <_>
      <rects>
        <_>
          9 19 6 1 -1.</_>
        <_>
          12 19 3 1 2.</_></rects>
      <tilted>0</tilted></_>
    <_>
      <rects>
        <_>
          13 15 6 2 -1.</_>
        <_>
          16 15 3 2 2.</_></rects>
      <tilted>0</tilted></_>
    <_>
      <rects>
        <_>
          16 0 4 2 -1.</_>
        <_>
          16 0 4 1 2.</_></rects>
      <tilted>1</tilted></_>
    <_>
      <rects>
        <_>
          16 2 4 15 -1.</_>
        <_>
          18 2 2 15 2.</_></rects>
      <tilted>0</tilted></_>
    <_>
      <rects>
        <_>
          16 3 2 6 -1.</_>
        <_>
          16 3 1 3 2.</_>
        <_>
          17 6 1 3 2.</_></rects>
      <tilted>0</tilted></_>
    <_>
      <rects>
        <_>
          16 8 4 2 -1.</_>
        <_>
          17 8 2 2 2.</_></rects>
      <tilted>0</tilted></_>
    <_>
      <rects>
        <_>
          18 7 2 8 -1.</_>
        <_>
          18 7 1 4 2.</_>
        <_>
          19 11 1 4 2.</_></rects>
      <tilted>0</tilted></_></features></cascade>
</opencv_storage>
